{"metadata": {"scale_factor": 1024, "num_classes": 20, "classes": ["Air Squat", "Box Jump", "Chest to Bar Pull Up", "Clean", "Deadlift", "Double Under", "Front Squat", "Handstand Push Up", "Overhead Squat", "Push Press", "Rest", "Ring Muscle Up", "Row", "Shoulder Press", "Shuttle Run", "Sit Ups", "Snatch", "V-UP", "V-Up", "Wall Ball"]}, "conv1": {"weights": [-763, 158, -245, 16, -180, -322, -6, 221, 155, 124, 22, 71, 257, -154, 226, -127, -45, 31, -132, -70, 199, -530, 46, 322, 187, 199, -104, -112, 36, 168, 259, -50, -870, 524, 583, -378, -79, -92, 9, 159, 3, 171, 8, 126, 90, -584, -146, -765, -152, -194, -499, -242, 106, -166, -83, 125, -67, 61, -3, 71, -98, 190, -166, 305, 504, 995, 96, -230, -15, 646, 321, 243, -409, -191, 134, -224, -99, 308, 424, 167, -114, 370, 728, 327, 182, 175, -145, -669, -402, -205, 15, -180, -18, -263, 441, -26, 109, -243, -47, 163, 164, 46, -624, -450, -601, -388, -503, -304, -298, 7, -94, -399, -106, 174, 190, -153, 19, -616, -568, -15, -393, -593, -213, 87, 81, 298, 12, 55, -17, 309, -15, 148, -53, 209, 14, 471, -151, -104, 494, 367, 396, 535, -263, 156, 415, 563, -78, 42, -69, 119, 122, -58, 78, 255, -70, -187, 62, 275, 13, -166, -78, -442, 217, -108, 125, 410, -28, 324, -13, -11, 43, -429, 173, 278, 98, -62, -360, 468, 437, 100, 0, -7, 107, -581, 56, -442, -147, 96, -311, -447, -178, -49, -293, 95, 288, 489, 46, -93, -398, 131, -400, 157, -167, 387, -375, -222, -69, 99, 179, -238, -256, -61, -227, -232, 43, 135, 377, -144, -286, 92, -82, 7, -311, 137, 153, 45, -8, 126, -83, 339, 630, -264, 949, 991, 209, -147, 191, -284, 99, -85, 284, -228, 446, 27, 365, 487, 60, 609, 198, -858, -437, 577, 158, -360, -78, 111, -29, -255, -112, 90, -45, 611, -362, -548, 479, 518, -638, -625, -4, 77, -218, 112, 57, 36, 225, -70, 83, -108, -29, -67, -194, -385, -690, -186, 972, -360, -672, 629], "bias": [-13, 247, -7, 119, -1120, -291, -432, 649, 74, 227, -500, -145, -49, -462, 636, -650]}, "fc": {"weights": [-729, -636, -208, -687, -491, -641, -547, -218, -539, -352, -699, -1041, -500, -1505, -857, -1359, -959, -976, -2096, -2272, -2267, -2866, 144, -80, 56, -16, 69, 3, -169, 95, 10, 11, 94, -945, -716, -379, -869, -548, -883, -637, -499, -1341, -371, -1100, -1216, -731, -1134, -878, -1332, -1014, -720, -1249, -982, -1174, -1265, -1027, -760, -639, -998, -892, -1147, -1100, -671, -1340, -1197, -1362, 92, 122, 336, 98, 236, 221, 287, 412, 181, 226, 386, -878, -452, -591, -667, -503, -880, -566, -746, -871, -655, -1114, 104, 166, 25, 62, 174, 65, 88, 98, 54, 155, 148, -129, -165, -97, -75, -77, -147, -55, -182, -140, -57, -140, -1137, -584, -1101, -536, -1116, -1095, -572, -1192, -863, -1137, -1015, -915, -1030, -530, -1152, -503, -921, -991, -568, -1190, -778, -1585, -756, -385, -701, -567, -647, -648, -465, -987, -495, -818, -1044, -50, 2, -110, 51, 1, 41, 97, -24, 43, 116, 40, -42, -7, -23, 17, -43, 60, -16, -109, 26, -262, -245, 343, 250, 297, 247, 310, 340, 216, 328, 341, 247, 469, 257, 196, 149, 306, 270, 218, 272, 194, 322, 245, 325, 12, 4, 66, 24, -1, 28, 12, 103, 59, 53, 72, 144, 263, 144, 207, 93, 42, 246, 107, 103, 161, 50, -79, -190, -49, -146, -86, -80, -145, 3, -137, -77, -79, -83, -83, -47, -140, -133, -39, -81, -90, -85, -173, -84, -87, 95, -105, 7, -33, -57, 67, -84, 119, -58, -63, -287, -273, -556, -156, -409, -281, -172, -463, -126, -375, -403, 163, 52, 57, 50, 102, 76, 80, 105, 56, 54, 62, -118, -177, -105, -67, -164, -138, -145, -177, -153, -204, -93, -97, -163, 14, -221, -46, -100, -159, 44, -187, -74, -58, -955, -798, -563, -857, -702, -829, -855, -579, -963, -632, -900, -48, 5, -160, 24, -122, -35, 28, -111, 127, -70, -115, -433, -426, -465, -325, -259, -331, -410, -402, -343, -277, -493, -119, -111, -132, -69, -80, -159, -58, -63, -116, -6, -125, 45, -19, 85, -98, -15, 50, -73, 8, -67, -44, 43, 69, -44, -29, -21, -15, 40, 38, 4, 52, 52, 144, -122, -133, -390, -24, -510, -88, -296, -272, -65, -524, -139, 132, 114, 64, 147, 205, 173, 221, 172, 195, 179, 215, -253, -319, -146, -364, -180, -148, -241, -165, -541, -313, -179, -165, -352, 54, -417, -418, -443, -1826, -556, -1523, -1335, -797, -637, -848, -597, -584, -755, -634, -1041, -720, -709, -809, -523, 95, 111, 68, 109, 130, 114, 70, 134, 227, 154, 208, -753, -488, -592, -605, -556, -1063, -392, -808, -490, -379, -1355, 33, -83, -110, -82, -103, 48, -160, -18, 68, -138, 10, -293, -460, -299, -491, -565, -446, -1004, -291, -751, -993, -653, -336, -420, -421, -518, -856, -642, -1446, -924, -593, -1272, -1044, -897, -1196, -915, -931, -655, -794, -1170, -843, -866, -753, -1075, 5, -153, -153, -110, -163, -87, -254, -140, -61, -100, -98, -89, -138, -73, -51, -1, -80, -96, -25, -1, -31, -20, 149, -267, -65, -141, -90, -343, -386, -510, -200, -264, -692, -215, 76, -48, -135, 46, -194, -61, -42, -184, -133, -258, 265, 272, 101, 269, 120, 265, 261, 214, 104, 221, 160, 135, -366, 126, -53, -206, 69, -294, 55, -164, -260, -168, 118, 29, 19, 47, 55, 56, 108, 105, 99, 96, 87, -195, -202, -166, -161, -188, -224, -309, -168, 31, -188, 20, -2447, -2613, -1847, -2044, -1863, -2228, -1315, -1156, -1092, -742, -1331, -726, -793, -578, -738, -665, -698, -822, -781, -710, -1024, -872, -413, -272, -272, -451, -181, -418, -351, -173, -423, -110, -385, 202, 117, 197, 219, 168, 262, 242, 241, 220, 231, 319, -641, -504, -957, -428, -747, -743, -621, -919, -564, -732, -748, -336, 114, -232, -40, -195, -317, 112, -175, -95, -92, -260, 120, 155, 87, 173, 83, 119, 51, 202, 259, 152, 297, -33, 120, 60, 76, 60, -12, 193, -34, 23, -41, 16, -1723, -702, -1432, -736, -1476, -1056, -523, -757, -558, -918, -1118, 73, 247, 111, 199, 128, 112, 183, 82, 152, 141, 101, -205, -171, -293, -188, -278, -227, -171, -501, -272, -448, -514, -659, -353, -568, -462, -542, -637, -485, -449, -447, -567, -572, -255, -487, -312, -202, -279, -140, -420, -93, -234, -325, -242, 43, 139, -62, 87, 24, -23, 85, -11, 140, 27, 43, -125, -71, -111, -39, -68, -69, -167, -67, -84, -110, -126, 246, 4, 189, 123, -38, 221, 29, 112, 52, -40, 317, 57, 105, 106, 42, 101, 81, 133, 84, 108, 73, 42, -100, -69, 24, -176, 46, -57, -38, -36, -120, 32, -169, -147, 144, -149, -40, 33, -78, 156, -78, -65, 188, 0, -106, -290, 114, -249, -153, -126, -337, 29, -261, -102, -172, 57, 38, 143, 51, 38, 51, 120, 121, 16, 68, 54, -181, 114, -160, 4, 95, -152, 62, -198, 46, 60, -121, -1121, -546, -478, -1022, -367, -935, -650, -375, -1103, -345, -1070, -128, -475, -280, -170, -490, -128, -410, -338, -70, -437, -102, -74, 0, -180, 40, -7, -152, 18, -198, -69, -81, -174, -564, -56, -738, -70, -245, -494, -27, -896, -181, -278, -647, -75, -123, 16, -74, 48, -25, -75, 69, -54, 96, 73, 60, 46, 53, 39, 80, 8, 23, 32, -5, 60, 64, -344, -40, -559, 131, -635, -218, 49, -484, 160, -582, -181, -830, -1068, -507, -1053, -812, -618, -944, -544, -818, -762, -897, 142, 89, 35, 11, 82, 110, 138, 119, 54, 127, 6, -601, -117, -292, -70, -162, -501, -125, -577, -132, -176, -371, -857, -43, -677, -509, -242, -577, -224, -714, -551, -432, -697, 227, 46, 198, 86, 98, 185, 138, 163, 165, 111, 223, -363, 76, -189, -100, -37, -81, 79, -260, 62, -35, -113, 209, 189, 155, 256, 54, 205, 196, 172, 194, 227, 184, -366, -148, -304, -229, -183, -253, -277, -321, -313, -311, -307, -1809, -1756, -1529, -1211, -2007, -1533, -1691, -1655, -1248, -1921, -2176, -2154, -2205, -1688, -3355, -1989, -2553, -2921, -2014, -3506, -1546, -2913, -361, -235, -305, -70, -340, -301, -110, -280, -289, -91, -357, -597, -397, -294, -515, -517, -838, -499, -289, -252, -446, -563, 133, -18, 77, 102, -79, 125, 118, 156, 156, -98, 234, -108, 135, -29, -23, 172, -119, 57, -121, -11, 33, -266, 28, 15, 40, -54, 86, -1, -70, 2, -82, 74, 40, -1714, -934, -849, -1472, -421, -1869, -1348, -1061, -1800, -936, -2112, 15, -43, -108, 42, -34, 9, 38, -161, 8, -15, -50, -503, -373, -322, -257, -282, -372, -266, -355, -233, -381, -492, -541, -615, -452, -576, -587, -345, -532, -520, -470, -553, -617, -452, -338, -480, -435, -308, -493, -338, -475, -382, -345, -467, -183, -193, -77, -290, -114, -99, -168, -98, -299, -148, -227, 105, 99, 35, 97, 74, 72, 124, 42, 151, 84, 84, -146, -107, -139, -83, -157, -186, -163, -55, -111, -153, -117, -154, -21, -172, -180, -68, -172, -50, -116, -143, -61, -292, 24, -30, 89, 48, 19, 9, 41, 84, -24, 86, 65, 362, 172, 244, 304, 262, 398, 243, 281, 313, 290, 384, 186, -102, 83, 52, 76, 130, -65, 71, 46, 89, 20, 139, 113, 142, -12, 171, 90, 95, 177, -33, 118, 113, -473, -175, -150, -534, -138, -526, -301, -116, -585, -194, -553, 50, 4, 97, 49, 10, 110, 7, 62, 57, 69, 171, 33, -154, 97, -160, -10, 22, -223, 50, -139, -34, -107, -333, -184, -301, -391, -229, -365, -216, -303, -340, -213, -327, -471, -13, -578, -25, -209, -661, -59, -671, -244, -388, -722, -773, -893, -829, -737, -698, -746, -877, -712, -985, -601, -793, -1666, -1436, -1670, -1269, -1603, -1260, -1561, -1197, -1261, -1228, -644, -196, -53, -283, -118, -22, -230, -115, -216, 128, 3, 27, -332, 4, -301, -225, -147, -394, -122, -167, -164, -197, -458, -760, -856, -754, -762, -682, -863, -862, -525, -854, -456, -948, 71, 179, -15, 58, -5, 42, 175, -96, 36, 41, 114, 207, 56, 200, 0, 4, 134, 18, 290, 47, 27, 79, 103, 187, 38, 167, 110, 84, 166, 13, 97, 35, 82, -41, -51, 32, -65, 67, 4, 61, 65, 4, 133, 59, 272, 286, 224, 212, 272, 215, 265, 164, 186, 215, 189, -24, -668, 8, -300, -387, 82, -322, -203, -237, -327, -128, 216, 151, 110, 147, 162, 246, 176, 149, 196, 313, 294, -60, 65, -109, -106, -95, -239, -68, -226, -257, -188, -371, -536, -385, -607, -436, -413, -568, -320, -328, -108, -190, -108, -274, 39, -180, -108, -80, -180, -133, -219, -287, -94, -84, -345, -181, -161, -296, -181, -312, -232, -219, -254, -371, -360, -1960, -1359, -1500, -1401, -1551, -1462, -1166, -1454, -1562, -1184, -1712, -702, -301, -423, -320, -270, -421, -285, -98, -288, -291, -258, -371, -572, -416, -579, -490, -453, -711, -555, -725, -533, -599, -639, -234, -370, -447, -135, -596, -218, -434, -499, -290, -730, -121, -179, -77, -251, -194, -63, -289, -54, -188, -196, -223, -37, 178, 162, -35, 140, -1, 123, 114, -50, 165, 89, -294, -61, -78, -17, -196, -36, -115, -49, -53, -28, -51, 206, 229, 90, 233, 166, 235, 188, 123, 142, 79, 150, 10, 108, -62, 77, -84, -119, 92, -64, 173, -72, 10, 77, -97, -89, 241, -69, 93, 160, -130, 164, 40, 38, -1652, -950, -1518, -1013, -1148, -1315, -791, -1404, -812, -1016, -1350, -232, 204, -136, 103, -159, -226, 154, -68, 18, -68, -294, 62, 44, 4, 81, 57, 32, 79, 11, 79, 77, 169, -1415, -1057, -841, -1179, -871, -1111, -823, -676, -471, -862, -903, 36, 16, 16, -10, -109, 74, -48, 24, -4, -119, 139, -576, -823, -618, -741, -790, -581, -621, -537, -405, -593, -467, 106, -16, 128, 137, 35, 31, 94, 81, 140, 61, 102, -535, -513, -199, -731, -544, -428, -796, -595, -633, -791, -849, -234, -96, -332, -184, -737, -339, -582, -781, -600, -1138, -608, -200, -144, -202, -188, 29, -259, -84, -290, -208, -136, -304, 456, 194, 403, 263, 297, 413, 155, 451, 198, 241, 447, -539, -513, -388, -733, -296, -425, -491, -243, -553, -233, -436, -757, -219, -651, -400, -447, -349, -299, -642, -123, -81, -248, -160, -64, -168, -207, -93, -112, -183, -61, -137, -136, -75, -159, -8, -179, 247, -82, -91, 315, -203, 355, 53, -3, 399, 330, 347, 292, 389, 297, 286, 293, 285, 349, 359, -1471, -198, -1589, -454, -501, -1355, -146, -1814, -103, -232, -1091, -342, -59, -296, -448, -308, -373, -224, -371, -486, -196, -139, -290, -228, -186, -105, -226, -172, -145, -211, -153, -271, -218, -2207, -919, -1635, -1382, -1284, -1863, -1064, -1649, -956, -1251, -1504, 43, 131, 214, 82, 168, 240, -97, 113, -90, 18, 153, 52, 92, 45, 106, 99, 61, 91, 46, 97, 121, 117, -72, 4, -58, -69, -71, -56, -32, -81, -38, -85, -71, 222, 114, 100, 122, 91, 137, 94, 98, 95, 71, 120, -19, -20, -27, 4, 9, 17, 15, 45, 17, -32, 33, 43, 38, 21, 56, 24, 24, 56, 23, 63, 36, 56, 63, 5, 34, 31, 10, 33, 26, 27, 61, 48, 47, -10, 23, -29, -72, -12, -76, -25, -61, -67, -75, -67, 62, -16, 22, 39, -33, 46, 23, 19, 50, 33, 88, -58, -65, -101, -32, -72, -67, -53, -57, -71, -46, -69, -288, -252, -201, -221, -206, -205, -215, -205, -210, -194, -222, -37, -80, -71, -102, -55, -58, -56, -84, -87, -56, -46, 139, 57, 93, 102, 93, 93, 142, 63, 72, 56, 89, -305, -326, -255, -289, -289, -271, -305, -297, -276, -318, -349, -21, -70, -13, -43, -27, 54, 14, 32, 10, 33, 128, 50, 66, 2, 10, 21, 27, -7, -16, -5, -21, 41, 0, -1, 29, -24, 14, 4, 89, 84, 90, 82, 69, -1186, -423, -598, -813, -311, -827, -453, -409, -689, -360, -907, 44, 39, 12, 73, 60, 57, 33, 51, 96, 111, 12, -605, -211, -316, -623, 9, -647, -259, -144, -389, -99, -546, -787, -1551, -654, -1234, -1593, -413, -1625, -584, -861, -1667, -701, 15, -187, -25, -109, -278, 46, -178, -110, -155, -409, 1, -564, -320, -424, -330, -660, -437, -466, -413, -287, -598, -404, -27, -248, 18, -45, -87, -3, -293, -35, -99, -174, 60, -1373, -1196, -1412, -1998, -893, -648, -1580, -718, -2045, -1048, -598, 198, -160, -15, 85, -40, 118, -142, -77, 190, -273, 22, -650, -810, -1152, -1106, -941, -874, -809, -1245, -1053, -1088, -993, -3, -2, 178, -156, 127, 33, 11, 278, -258, 84, -47, -251, -655, -52, -845, -314, -241, -396, -7, -1066, -294, -289, 237, -24, 143, 116, -2, 244, -3, 78, 113, 85, 186, 101, -41, 158, -83, -87, 135, -106, 109, -32, -20, 211, -165, 52, -142, -59, 52, -106, 124, -46, -46, 84, -83, -163, 120, -310, -187, -47, -136, 99, -177, -43, -53, -251, -5, -56, 72, -78, 8, 22, -73, -20, 3, -85, 41, -258, -435, -339, -368, -418, -353, -372, -311, -337, -262, -350, 332, 290, 244, 257, 97, 283, 166, -36, 88, 62, 129, -1562, -589, -1593, -680, -1127, -1420, -767, -1381, -935, -971, -1363, -658, -437, -342, -468, -534, -631, -898, -532, -639, -753, -829, 317, 171, 206, 207, 243, 164, 216, 229, 255, 161, 296, -708, -599, -561, -638, -542, -660, -650, -540, -640, -648, -737, 145, 85, 183, 88, 51, 149, -14, 131, 108, 55, 70, 9, -76, -62, 190, -77, -32, 0, -48, -52, -50, 3, 521, 366, 518, 415, 525, 492, 457, 534, 329, 472, 456, -108, -97, 61, -225, 81, -50, -115, 0, -223, -58, -10, -435, -598, -542, -638, -791, -573, -948, -467, -584, -807, -713, -614, -423, -583, -606, -596, -679, -432, -668, -574, -321, -518, -901, -675, -756, -665, -638, -809, -726, -756, -1218, -741, -1500, -88, -141, -206, -135, -204, -49, -172, -123, -125, -69, -155, -591, -545, -520, -578, -554, -777, -608, -893, -846, -919, -1145, -1207, -675, -798, -1052, -434, -1285, -910, -640, -1334, -555, -439, -128, -107, -47, -233, 7, -141, -17, 16, -136, -29, 29, -291, -458, -344, -493, -355, -467, -502, -117, -425, -204, -193, -48, -224, -128, -173, -64, -127, -148, 82, -98, 134, 229, -854, -1256, -650, -945, -819, -802, -1180, -689, -876, -943, -943, 162, 119, 91, 112, -23, 295, 45, 190, 195, -68, 311, -1176, -853, -935, -1074, -925, -624, -892, -712, -784, -599, -466, 31, 50, 155, 74, 139, 6, 14, -36, 68, 38, -25, -160, -18, 22, -29, -58, -100, -122, -9, -324, -16, -118, -134, -357, -110, -139, -362, 1, -255, -109, -16, -183, -8, -108, -164, -107, -155, 67, 88, -122, 75, 1, -49, 82, -390, -359, -368, -311, -480, -347, -460, -769, -526, -342, -436, 288, 281, 284, 366, 382, 262, 310, 277, 286, 450, 401, -620, -863, -314, -365, -479, -150, -343, -274, -385, -467, -404, -530, -526, -417, -508, -478, -330, -760, -618, -697, -480, -897, 48, 162, 93, 165, 41, 86, 91, 104, 87, -76, -142, -258, -210, -342, -167, -187, -137, -56, -164, -202, -182, -258, 178, 59, 49, 50, 33, 111, 26, 37, 65, 87, 112, -552, -412, -556, -386, -456, -762, -484, -928, -557, -473, -881, -96, -112, -193, -45, -221, -110, -131, -257, -72, -285, -21, 250, 117, 153, 163, 178, 182, 129, 184, 214, 168, 244, -738, -378, -648, -343, -321, -676, -335, -556, -422, -390, -665, -270, -170, -309, -179, -238, -265, -140, -298, -159, -192, -221, 307, 188, 133, 151, 153, 216, 124, 59, 138, 137, 182, -1345, -1177, -1108, -1579, -1171, -1564, -1354, -1231, -1650, -1263, -1725, -315, 171, -226, 18, -102, -455, 39, -274, -291, -15, -557, 184, 68, 91, 100, 122, 124, 128, 128, 73, 133, 189, -708, -702, -661, -778, -707, -674, -816, -502, -700, -759, -929, 44, -59, 91, -4, -2, 73, 23, 129, 17, 86, 293, -1026, -945, -638, -806, -928, -810, -852, -845, -673, -1107, -1175, 115, 69, 85, 148, 10, 147, 26, 76, 90, 20, 147, -408, 2, -120, -278, 60, -118, -384, -120, -646, -406, -664, 145, -167, 108, -164, -80, 30, -153, 44, -139, -89, -89, -200, -100, -160, -161, -6, -213, -99, -96, -122, -25, -183, 72, -132, 27, 31, -33, 114, 35, 62, 19, 34, 121, 89, 94, 48, 93, 107, 81, 111, 159, 120, 89, 42, 86, 115, 52, 72, 76, 73, 134, 51, 113, 124, 105, -1038, -844, -387, -1239, -378, -855, -861, -340, -1236, -359, -934, -77, -22, -96, 17, -95, -131, -64, -92, -44, -163, -162, -162, -310, -213, -293, -278, -203, -272, -118, -340, -243, -282, -752, -593, -391, -670, -450, -536, -589, -383, -727, -416, -699, -48, -171, 2, -25, -186, 42, -144, -83, -53, -144, 1, -485, -485, -347, -461, -193, -308, -489, -217, -392, -339, -325, 150, 136, 140, 78, 155, 174, 143, 147, 138, 143, 176, -630, -640, -493, -562, -438, -521, -531, -687, -648, -551, -489, 62, 37, 120, 29, 74, 118, 91, 92, 83, 96, 204, -17, -58, -24, -27, -93, -13, -73, -73, -50, -53, 47, -452, -431, -376, -318, -520, -280, -307, -349, -309, -547, -452, 87, 81, 106, 128, 122, 141, 135, 90, 142, 105, 147, -43, -94, -5, -42, -69, -85, -42, -28, -48, -81, -40, -277, 94, -164, -86, 62, -257, 65, -63, -139, -45, -307, -7, 31, 27, -50, 65, -46, 21, 42, -73, 65, -15, 3, 14, -118, 30, -89, 16, 1, -58, -11, -86, -64, 83, 15, -141, -39, -48, 43, -99, -151, -20, -54, -16, -311, -455, -431, -193, -412, -223, -433, -392, -277, -452, -315, 67, 18, 3, 56, -30, 8, 103, -6, 16, -37, -22, -126, -50, -38, -49, -2, -56, 28, 10, -65, 26, -24, -486, -541, -193, -668, -438, -387, -558, -282, -556, -438, -286, -308, -466, -200, -282, -227, -229, -325, -117, -129, -130, -195, 78, -27, 46, -102, 118, 55, -11, 31, -108, 50, 18, -475, -504, -332, -424, -498, -280, -401, -404, -462, -426, -447, -13, 60, -29, 63, 84, 16, 42, 24, 146, 84, 134, 152, 33, 130, 62, 35, 125, 32, 97, 59, -11, 122, -119, -244, -76, -293, -25, -38, -139, -11, -221, 74, -118, 241, 63, 116, -36, -4, 94, -58, 117, 20, 63, 52, 226, 128, -71, 334, -108, 123, 250, 5, 336, -21, 144, -644, -448, -821, -305, -609, -425, -438, -733, -415, -820, -402, 32, -118, 0, -37, -43, 137, -89, 98, 60, 26, 94, -1682, -2707, -1083, -1858, -1547, -1302, -2680, -1230, -1850, -1368, -1645, -422, -432, -502, -460, -613, -514, -456, -569, -419, -536, -568, 151, -8, 55, -58, 25, -142, -20, 15, 1, 123, -41, -136, 22, -165, 7, -38, -152, -107, -32, -65, -74, -22, -143, -74, -134, -128, -3, -87, 28, -67, -84, 51, -29, 197, 88, 34, -24, -10, -2, 171, -71, -7, 32, -63, -1381, -1549, -952, -1177, -1746, -1114, -1496, -941, -1191, -1500, -1399, 166, 127, 83, 64, 156, 172, 151, 162, 146, 51, 249, -1577, -2512, -1223, -4873, -3247, -2054, -3293, -1926, -4985, -2930, -2331, 51, 7, -25, 19, 11, 153, 85, 62, 83, 113, 145, -78, -169, -144, -216, -179, -167, -284, -211, -251, -238, -209, 241, 208, 78, 196, 170, 146, 222, 75, 339, 190, 327, -492, -544, -191, -717, -442, -315, -324, -181, -646, -387, -334, -57, -184, -80, -9, -110, -59, -91, -92, -155, -133, -58, 109, 257, 162, 190, 257, 93, 269, 148, 64, 90, 141, 387, 333, 319, 396, 283, 400, 279, 397, 251, 145, 110, 167, 22, 77, 65, 39, 144, 43, 79, 122, 28, 186, -665, -693, -379, -1222, -752, -752, -856, -442, -1441, -938, -1042, -295, -191, -480, -100, -288, -158, -137, -520, -110, -243, -3, -3022, -4489, -2752, -3106, -3687, -2404, -4635, -2855, -2137, -1382, -1149, -421, -1031, -649, -417, -1322, -497, -1169, -665, -348, -1843, -672, -420, -302, -679, -461, -893, -952, -1117, -1254, -1933, -2784, -2597, 92, 183, -36, 59, -91, 51, 104, 140, 203, -15, 134, 125, -33, 26, 67, 45, 110, 93, 141, 77, 92, 120, 351, 11, 107, 197, 59, 308, 10, 129, 74, 20, 357, 132, -156, 55, -235, -290, -129, -603, -324, -1083, -612, -914, -1774, -1441, -1864, -1029, -1552, -1543, -1417, -1845, -1122, -1515, -1703, 149, 270, 222, 151, 273, 3, 211, 92, 74, 362, -4, -801, -1221, -925, -787, -977, -698, -1031, -933, -933, -1200, -978, -749, -737, -601, -707, -495, -614, -741, -463, -732, -481, -670, -262, -293, -268, -225, -349, -155, -65, -223, -12, -227, -255, -59, -259, -207, -179, -265, -169, -226, -134, -99, -288, -258, -122, -26, -115, -95, -167, -39, -69, -130, -88, -198, -66, -1109, -1023, -1166, -951, -983, -1143, -943, -1346, -814, -917, -1138, 292, 251, 244, 111, 179, 221, 254, 234, 285, 255, 289, -521, -573, -769, -457, -542, -856, -489, -866, -452, -590, -718, -137, -184, -78, -106, -87, -35, -153, -41, -158, -59, -132, 344, 439, 454, 333, 332, 413, 392, 357, 262, 360, 417, -817, -298, -589, -619, -334, -874, -392, -528, -419, -339, -618, -831, -820, -813, -603, -678, -621, -630, -681, -569, -787, -598, 28, 81, 68, 54, -30, 12, 121, -36, 74, 80, 168, -188, -50, -285, -16, -183, -209, -34, -277, -12, -201, -159, 116, 126, 48, 27, 42, 30, 151, 6, 56, 155, 57, -371, -486, -504, -408, -524, -419, -455, -487, -490, -459, -342], "bias": [510, -1004, 879, 580, -2253, -750, -943, -490, 107, -369, 1324, -118, 1433, 689, -176, -477, -1888, -1580, 74, 992]}}